net
{
	jenginegenerator6060830225489488864L = "edu.ucla.belief.inference.JoinTreeSettings@a7d872";
	node_size = (130.0 55.0);
	propagationenginegenerator1791944048146838126L = "edu.ucla.belief.approx.BeliefPropagationSettings@7328ce";
	recoveryenginegenerator6944530267470113528l = "edu.ucla.util.SettingsImpl@7c0efa";
	huginenginegenerator3061656038650325130L = "edu.ucla.belief.inference.JoinTreeSettings@bb5e9f";
}

node Assets
{
	states = ("High" "Medium" "Low" );
	position = (59 -301);
	excludepolicy = "include whole CPT";
	ismapvariable = "false";
	DSLxEXTRA_DEFINITIONxRANKED = "false";
	diagnosistype = "AUXILIARY";
	DSLxPOSITIONxWIDTH = "70";
	label = "Assets";
	DSLxEXTRA_DEFINITIONxDIAGNOSIS_TYPE = "AUXILIARY";
	DSLxTYPE = "CPT";
	DSLxEXTRA_DEFINITIONxMANDATORY = "false";
	ID = "Worth";
	DSLxPOSITIONxHEIGHT = "30";
}
node PaymentHistory
{
	states = ("Excellent" "Acceptable" "Unacceptable" );
	position = (189 -199);
	excludepolicy = "include whole CPT";
	ismapvariable = "false";
	DSLxEXTRA_DEFINITIONxRANKED = "false";
	diagnosistype = "AUXILIARY";
	DSLxPOSITIONxWIDTH = "93";
	label = "Payment History";
	DSLxEXTRA_DEFINITIONxDIAGNOSIS_TYPE = "AUXILIARY";
	DSLxTYPE = "CPT";
	DSLxEXTRA_DEFINITIONxMANDATORY = "false";
	ID = "PaymentHistory";
	DSLxPOSITIONxHEIGHT = "30";
}
node Age
{
	states = ("Between16and21" "Between22and64" "Over65" );
	position = (335 -19);
	excludepolicy = "include whole CPT";
	ismapvariable = "false";
	DSLxEXTRA_DEFINITIONxRANKED = "false";
	diagnosistype = "AUXILIARY";
	DSLxPOSITIONxWIDTH = "70";
	label = "Age";
	DSLxEXTRA_DEFINITIONxDIAGNOSIS_TYPE = "AUXILIARY";
	DSLxTYPE = "CPT";
	DSLxEXTRA_DEFINITIONxMANDATORY = "false";
	ID = "Age";
	DSLxPOSITIONxHEIGHT = "30";
}
node Income
{
	states = ("High" "Medium" "Low" );
	position = (-15 -207);
	excludepolicy = "include whole CPT";
	ismapvariable = "false";
	DSLxEXTRA_DEFINITIONxRANKED = "false";
	diagnosistype = "AUXILIARY";
	DSLxPOSITIONxWIDTH = "83";
	label = "Income";
	DSLxEXTRA_DEFINITIONxDIAGNOSIS_TYPE = "AUXILIARY";
	DSLxTYPE = "CPT";
	DSLxEXTRA_DEFINITIONxMANDATORY = "false";
	ID = "Profession";
	DSLxPOSITIONxHEIGHT = "30";
}
node Reliability
{
	states = ("Reliable" "Unreliable" );
	position = (387 -257);
	excludepolicy = "include whole CPT";
	ismapvariable = "false";
	DSLxEXTRA_DEFINITIONxRANKED = "false";
	diagnosistype = "AUXILIARY";
	DSLxPOSITIONxWIDTH = "70";
	label = "Reliability";
	DSLxEXTRA_DEFINITIONxDIAGNOSIS_TYPE = "AUXILIARY";
	DSLxTYPE = "CPT";
	DSLxEXTRA_DEFINITIONxMANDATORY = "false";
	ID = "Reliability";
	DSLxPOSITIONxHEIGHT = "30";
}
node DebtIncomeRatio
{
	states = ("Low" "High" );
	position = (45 -58);
	excludepolicy = "include whole CPT";
	ismapvariable = "false";
	DSLxEXTRA_DEFINITIONxRANKED = "false";
	diagnosistype = "AUXILIARY";
	DSLxPOSITIONxWIDTH = "81";
	label = "Ratio of Debts To Income";
	DSLxEXTRA_DEFINITIONxDIAGNOSIS_TYPE = "AUXILIARY";
	DSLxTYPE = "CPT";
	DSLxEXTRA_DEFINITIONxMANDATORY = "false";
	ID = "RatioDebInc";
	DSLxPOSITIONxHEIGHT = "30";
}
node CreditWorthiness
{
	states = ("Positive" "Negative" );
	position = (192 -362);
	excludepolicy = "include whole CPT";
	ismapvariable = "false";
	DSLxEXTRA_DEFINITIONxRANKED = "false";
	diagnosistype = "AUXILIARY";
	DSLxPOSITIONxWIDTH = "100";
	label = "Credit Worthiness";
	DSLxEXTRA_DEFINITIONxDIAGNOSIS_TYPE = "AUXILIARY";
	DSLxTYPE = "CPT";
	DSLxEXTRA_DEFINITIONxMANDATORY = "false";
	ID = "CreditWorthiness";
	DSLxPOSITIONxHEIGHT = "30";
}
node FutureIncome
{
	states = ("Promising" "Not_promising" );
	position = (-20 -386);
	excludepolicy = "include whole CPT";
	ismapvariable = "false";
	DSLxEXTRA_DEFINITIONxRANKED = "false";
	diagnosistype = "AUXILIARY";
	DSLxPOSITIONxWIDTH = "90";
	label = "Future Income";
	DSLxEXTRA_DEFINITIONxDIAGNOSIS_TYPE = "AUXILIARY";
	DSLxTYPE = "CPT";
	DSLxEXTRA_DEFINITIONxMANDATORY = "false";
	ID = "FutureIncome";
	DSLxPOSITIONxHEIGHT = "30";
}
potential ( Assets | Income )
{
	data = ((	0.8	0.1	0.1	)
		(	0.4	0.5	0.1	)
		(	0.05	0.05	0.9	));
}
potential ( PaymentHistory | Age DebtIncomeRatio )
{
	data = (((	0.7	0.15	0.15	)
		(	0.1	0.1	0.8	))
		((	0.8	0.15	0.05	)
		(	0.05	0.15	0.8	))
		((	0.3333333333333333	0.3333333333333333	0.3333333333333333	)
		(	0.3333333333333333	0.3333333333333333	0.3333333333333333	)));
}
potential ( Age | )
{
	data = (	0.3333333333333333	0.3333333333333333	0.3333333333333333	);
}
potential ( Income | )
{
	data = (	0.3333333333333333	0.3333333333333333	0.3333333333333333	);
}
potential ( Reliability | PaymentHistory Age )
{
	data = (((	0.7	0.3	)
		(	0.9	0.1	)
		(	0.95	0.05	))
		((	0.3	0.7	)
		(	0.3	0.7	)
		(	0.6	0.4	))
		((	0.2	0.8	)
		(	0.3	0.7	)
		(	0.4	0.6	)));
}
potential ( DebtIncomeRatio | )
{
	data = (	0.5	0.5	);
}
potential ( CreditWorthiness | Reliability FutureIncome DebtIncomeRatio )
{
	data = ((((	0.9	0.1	)
		(	0.7	0.3	))
		((	0.6	0.4	)
		(	0.4	0.6	)))
		(((	0.5	0.5	)
		(	0.3	0.7	))
		((	0.4	0.6	)
		(	0.1	0.9	))));
}
potential ( FutureIncome | Assets Income )
{
	data = (((	0.9	0.1	)
		(	0.8	0.2	)
		(	0.6	0.4	))
		((	0.8	0.2	)
		(	0.5	0.5	)
		(	0.4	0.6	))
		((	0.6	0.4	)
		(	0.4	0.6	)
		(	0.1	0.9	)));
}
